<?xml version="1.0"?>
<opencv_storage>
<prohibitory4 type_id="opencv-haar-classifier">
  <size>
    24 24</size>
  <stages>
    <_>
      <trees>
        <_>
          <_>
            <feature>
              <rects>
                <_>
                  10 1 7 12 -1.</_>
                <_>
                  10 4 7 6 2.</_></rects>
              <tilted>0</tilted></feature>
            <threshold>-0.0333696305751801</threshold>
            <left_val>0.6689388155937195</left_val>
            <right_val>-0.3588724136352539</right_val></_></_>
        <_>
          <_>
            <feature>
              <rects>
                <_>
                  8 16 8 6 -1.</_>
                <_>
                  8 18 8 2 3.</_></rects>
              <tilted>0</tilted></feature>
            <threshold>-0.0198055095970631</threshold>
            <left_val>0.7178655862808228</left_val>
            <right_val>-0.2623082101345062</right_val></_></_>
        <_>
          <_>
            <feature>
              <rects>
                <_>
                  7 13 8 6 -1.</_>
                <_>
                  7 15 8 2 3.</_></rects>
              <tilted>0</tilted></feature>
            <threshold>-0.0245951898396015</threshold>
            <left_val>0.7552846074104309</left_val>
            <right_val>-0.2176180928945541</right_val></_></_>
        <_>
          <_>
            <feature>
              <rects>
                <_>
                  8 3 4 6 -1.</_>
                <_>
                  9 4 2 6 2.</_></rects>
              <tilted>1</tilted></feature>
            <threshold>-0.0141259804368019</threshold>
            <left_val>0.6871806979179382</left_val>
            <right_val>-0.1638963073492050</right_val></_></_>
        <_>
          <_>
            <feature>
              <rects>
                <_>
                  18 12 2 5 -1.</_>
                <_>
                  18 12 1 5 2.</_></rects>
              <tilted>1</tilted></feature>
            <threshold>8.2678003236651421e-003</threshold>
            <left_val>-0.2125297039747238</left_val>
            <right_val>0.6279469132423401</right_val></_></_>
        <_>
          <_>
            <feature>
              <rects>
                <_>
                  17 9 3 5 -1.</_>
                <_>
                  18 9 1 5 3.</_></rects>
              <tilted>0</tilted></feature>
            <threshold>5.9409230016171932e-003</threshold>
            <left_val>-0.1436311006546021</left_val>
            <right_val>0.6976485848426819</right_val></_></_>
        <_>
          <_>
            <feature>
              <rects>
                <_>
                  9 15 6 4 -1.</_>
                <_>
                  9 16 6 2 2.</_></rects>
              <tilted>0</tilted></feature>
            <threshold>-4.5546991750597954e-003</threshold>
            <left_val>0.5415347218513489</left_val>
            <right_val>-0.2145089954137802</right_val></_></_>
        <_>
          <_>
            <feature>
              <rects>
                <_>
                  18 8 2 3 -1.</_>
                <_>
                  17 9 2 1 3.</_></rects>
              <tilted>1</tilted></feature>
            <threshold>7.5681749731302261e-003</threshold>
            <left_val>-0.1666789054870606</left_val>
            <right_val>0.7231441736221314</right_val></_></_>
        <_>
          <_>
            <feature>
              <rects>
                <_>
                  16 5 5 3 -1.</_>
                <_>
                  15 6 5 1 3.</_></rects>
              <tilted>1</tilted></feature>
            <threshold>-0.0133773395791650</threshold>
            <left_val>0.7761250138282776</left_val>
            <right_val>-0.1141887977719307</right_val></_></_>
        <_>
          <_>
            <feature>
              <rects>
                <_>
                  8 5 7 6 -1.</_>
                <_>
                  8 7 7 2 3.</_></rects>
              <tilted>0</tilted></feature>
            <threshold>-0.0219691004604101</threshold>
            <left_val>0.6438220739364624</left_val>
            <right_val>-0.1495974957942963</right_val></_></_></trees>
      <stage_threshold>-1.2104099988937378</stage_threshold>
      <parent>-1</parent>
      <next>-1</next></_>
    <_>
      <trees>
        <_>
          <_>
            <feature>
              <rects>
                <_>
                  8 11 5 6 -1.</_>
                <_>
                  6 13 5 2 3.</_></rects>
              <tilted>1</tilted></feature>
            <threshold>-0.0186139903962612</threshold>
            <left_val>0.5898674726486206</left_val>
            <right_val>-0.3294211030006409</right_val></_></_>
        <_>
          <_>
            <feature>
              <rects>
                <_>
                  13 12 1 2 -1.</_>
                <_>
                  13 12 1 1 2.</_></rects>
              <tilted>1</tilted></feature>
            <threshold>3.0163449700921774e-003</threshold>
            <left_val>-0.2191437929868698</left_val>
            <right_val>0.7553126215934753</right_val></_></_>
        <_>
          <_>
            <feature>
              <rects>
                <_>
                  7 3 10 6 -1.</_>
                <_>
                  7 5 10 2 3.</_></rects>
              <tilted>0</tilted></feature>
            <threshold>-0.0232221391052008</threshold>
            <left_val>0.6559048295021057</left_val>
            <right_val>-0.3489600121974945</right_val></_></_>
        <_>
          <_>
            <feature>
              <rects>
                <_>
                  10 6 8 6 -1.</_>
                <_>
                  10 8 8 2 3.</_></rects>
              <tilted>0</tilted></feature>
            <threshold>-0.0135788898915052</threshold>
            <left_val>0.6608111262321472</left_val>
            <right_val>-0.3099510073661804</right_val></_></_>
        <_>
          <_>
            <feature>
              <rects>
                <_>
                  5 10 3 7 -1.</_>
                <_>
                  6 10 1 7 3.</_></rects>
              <tilted>0</tilted></feature>
            <threshold>6.6821770742535591e-003</threshold>
            <left_val>-0.1989289969205856</left_val>
            <right_val>0.7722194790840149</right_val></_></_>
        <_>
          <_>
            <feature>
              <rects>
                <_>
                  10 8 2 12 -1.</_>
                <_>
                  10 14 2 6 2.</_></rects>
              <tilted>0</tilted></feature>
            <threshold>-2.3196800611913204e-004</threshold>
            <left_val>0.3428399860858917</left_val>
            <right_val>-0.6022307276725769</right_val></_></_>
        <_>
          <_>
            <feature>
              <rects>
                <_>
                  4 10 3 6 -1.</_>
                <_>
                  5 10 1 6 3.</_></rects>
              <tilted>0</tilted></feature>
            <threshold>3.4948820248246193e-003</threshold>
            <left_val>-0.2919791936874390</left_val>
            <right_val>0.6256778240203857</right_val></_></_>
        <_>
          <_>
            <feature>
              <rects>
                <_>
                  9 5 6 6 -1.</_>
                <_>
                  9 5 3 6 2.</_></rects>
              <tilted>1</tilted></feature>
            <threshold>-1.3130489969626069e-004</threshold>
            <left_val>0.3801093995571137</left_val>
            <right_val>-0.4948006868362427</right_val></_></_>
        <_>
          <_>
            <feature>
              <rects>
                <_>
                  0 3 24 17 -1.</_>
                <_>
                  6 3 12 17 2.</_></rects>
              <tilted>0</tilted></feature>
            <threshold>-0.2080466002225876</threshold>
            <left_val>0.8234502077102661</left_val>
            <right_val>-0.2287587970495224</right_val></_></_>
        <_>
          <_>
            <feature>
              <rects>
                <_>
                  18 6 6 9 -1.</_>
                <_>
                  20 8 2 9 3.</_></rects>
              <tilted>1</tilted></feature>
            <threshold>0.0115166101604700</threshold>
            <left_val>-0.3446271121501923</left_val>
            <right_val>0.4904139935970306</right_val></_></_>
        <_>
          <_>
            <feature>
              <rects>
                <_>
                  10 12 3 6 -1.</_>
                <_>
                  11 14 1 2 9.</_></rects>
              <tilted>0</tilted></feature>
            <threshold>0.0129983499646187</threshold>
            <left_val>-0.3575977087020874</left_val>
            <right_val>0.6671469807624817</right_val></_></_>
        <_>
          <_>
            <feature>
              <rects>
                <_>
                  9 6 10 8 -1.</_>
                <_>
                  14 6 5 8 2.</_></rects>
              <tilted>0</tilted></feature>
            <threshold>-8.2791870227083564e-005</threshold>
            <left_val>0.4358657896518707</left_val>
            <right_val>-0.5959023237228394</right_val></_></_>
        <_>
          <_>
            <feature>
              <rects>
                <_>
                  9 6 10 11 -1.</_>
                <_>
                  14 6 5 11 2.</_></rects>
              <tilted>0</tilted></feature>
            <threshold>2.3519979731645435e-004</threshold>
            <left_val>-0.4265911877155304</left_val>
            <right_val>0.5509502887725830</right_val></_></_>
        <_>
          <_>
            <feature>
              <rects>
                <_>
                  10 8 8 16 -1.</_>
                <_>
                  14 8 4 16 2.</_></rects>
              <tilted>0</tilted></feature>
            <threshold>-7.3321869422215968e-005</threshold>
            <left_val>0.4532940983772278</left_val>
            <right_val>-0.5798906087875366</right_val></_></_>
        <_>
          <_>
            <feature>
              <rects>
                <_>
                  14 13 8 3 -1.</_>
                <_>
                  14 13 4 3 2.</_></rects>
              <tilted>1</tilted></feature>
            <threshold>-6.2775900587439537e-003</threshold>
            <left_val>0.5766854882240295</left_val>
            <right_val>-0.4560421109199524</right_val></_></_></trees>
      <stage_threshold>-1.1645350456237793</stage_threshold>
      <parent>0</parent>
      <next>-1</next></_>
    <_>
      <trees>
        <_>
          <_>
            <feature>
              <rects>
                <_>
                  2 3 8 12 -1.</_>
                <_>
                  2 3 4 6 2.</_>
                <_>
                  6 9 4 6 2.</_></rects>
              <tilted>0</tilted></feature>
            <threshold>0.0265082195401192</threshold>
            <left_val>-0.3075510859489441</left_val>
            <right_val>0.5638806223869324</right_val></_></_>
        <_>
          <_>
            <feature>
              <rects>
                <_>
                  17 11 6 6 -1.</_>
                <_>
                  19 13 2 6 3.</_></rects>
              <tilted>1</tilted></feature>
            <threshold>-0.0327090509235859</threshold>
            <left_val>0.5909425020217896</left_val>
            <right_val>-0.3407625854015350</right_val></_></_>
        <_>
          <_>
            <feature>
              <rects>
                <_>
                  11 10 3 6 -1.</_>
                <_>
                  12 12 1 2 9.</_></rects>
              <tilted>0</tilted></feature>
            <threshold>0.0166456401348114</threshold>
            <left_val>-0.2789947986602783</left_val>
            <right_val>0.5901871919631958</right_val></_></_>
        <_>
          <_>
            <feature>
              <rects>
                <_>
                  10 6 2 14 -1.</_>
                <_>
                  10 13 2 7 2.</_></rects>
              <tilted>0</tilted></feature>
            <threshold>-2.5976229153457098e-005</threshold>
            <left_val>0.2971147894859314</left_val>
            <right_val>-0.5141654014587402</right_val></_></_>
        <_>
          <_>
            <feature>
              <rects>
                <_>
                  13 0 4 15 -1.</_>
                <_>
                  13 5 4 5 3.</_></rects>
              <tilted>0</tilted></feature>
            <threshold>-0.0180529393255711</threshold>
            <left_val>0.4258280992507935</left_val>
            <right_val>-0.3336969912052155</right_val></_></_>
        <_>
          <_>
            <feature>
              <rects>
                <_>
                  14 4 8 17 -1.</_>
                <_>
                  18 4 4 17 2.</_></rects>
              <tilted>0</tilted></feature>
            <threshold>-0.0441753491759300</threshold>
            <left_val>0.6101669073104858</left_val>
            <right_val>-0.3035384118556976</right_val></_></_>
        <_>
          <_>
            <feature>
              <rects>
                <_>
                  7 6 11 12 -1.</_>
                <_>
                  7 10 11 4 3.</_></rects>
              <tilted>0</tilted></feature>
            <threshold>-3.0233270954340696e-003</threshold>
            <left_val>0.5970112085342407</left_val>
            <right_val>-0.1774664074182510</right_val></_></_>
        <_>
          <_>
            <feature>
              <rects>
                <_>
                  10 1 4 9 -1.</_>
                <_>
                  10 1 2 9 2.</_></rects>
              <tilted>1</tilted></feature>
            <threshold>0.0432663597166538</threshold>
            <left_val>-0.1800792068243027</left_val>
            <right_val>0.7223088741302490</right_val></_></_>
        <_>
          <_>
            <feature>
              <rects>
                <_>
                  13 11 1 3 -1.</_>
                <_>
                  12 12 1 1 3.</_></rects>
              <tilted>1</tilted></feature>
            <threshold>4.3380600400269032e-003</threshold>
            <left_val>-0.2007994949817658</left_val>
            <right_val>0.6479371190071106</right_val></_></_>
        <_>
          <_>
            <feature>
              <rects>
                <_>
                  12 9 1 12 -1.</_>
                <_>
                  12 15 1 6 2.</_></rects>
              <tilted>0</tilted></feature>
            <threshold>-1.9409049855312333e-005</threshold>
            <left_val>0.2526367902755737</left_val>
            <right_val>-0.6110410094261169</right_val></_></_>
        <_>
          <_>
            <feature>
              <rects>
                <_>
                  16 11 2 6 -1.</_>
                <_>
                  16 11 2 3 2.</_></rects>
              <tilted>1</tilted></feature>
            <threshold>-1.1291709961369634e-004</threshold>
            <left_val>0.4718061983585358</left_val>
            <right_val>-0.2863881886005402</right_val></_></_>
        <_>
          <_>
            <feature>
              <rects>
                <_>
                  12 6 4 6 -1.</_>
                <_>
                  12 8 4 2 3.</_></rects>
              <tilted>0</tilted></feature>
            <threshold>-0.0170910302549601</threshold>
            <left_val>0.6937142014503479</left_val>
            <right_val>-0.2093136012554169</right_val></_></_>
        <_>
          <_>
            <feature>
              <rects>
                <_>
                  16 3 6 3 -1.</_>
                <_>
                  15 4 6 1 3.</_></rects>
              <tilted>1</tilted></feature>
            <threshold>-0.0134587902575731</threshold>
            <left_val>0.6757742166519165</left_val>
            <right_val>-0.1714563965797424</right_val></_></_>
        <_>
          <_>
            <feature>
              <rects>
                <_>
                  16 3 5 3 -1.</_>
                <_>
                  15 4 5 1 3.</_></rects>
              <tilted>1</tilted></feature>
            <threshold>0.0159930400550365</threshold>
            <left_val>-0.1221256032586098</left_val>
            <right_val>0.8424506783485413</right_val></_></_>
        <_>
          <_>
            <feature>
              <rects>
                <_>
                  0 0 15 12 -1.</_>
                <_>
                  0 4 15 4 3.</_></rects>
              <tilted>0</tilted></feature>
            <threshold>-4.7474651364609599e-004</threshold>
            <left_val>0.3230206072330475</left_val>
            <right_val>-0.5275645852088928</right_val></_></_>
        <_>
          <_>
            <feature>
              <rects>
                <_>
                  3 15 12 3 -1.</_>
                <_>
                  7 16 4 1 9.</_></rects>
              <tilted>0</tilted></feature>
            <threshold>-0.0116548500955105</threshold>
            <left_val>0.3987643122673035</left_val>
            <right_val>-0.3118968009948731</right_val></_></_>
        <_>
          <_>
            <feature>
              <rects>
                <_>
                  3 4 6 15 -1.</_>
                <_>
                  6 4 3 15 2.</_></rects>
              <tilted>0</tilted></feature>
            <threshold>0.0295990407466888</threshold>
            <left_val>-0.2093590050935745</left_val>
            <right_val>0.5970163941383362</right_val></_></_>
        <_>
          <_>
            <feature>
              <rects>
                <_>
                  2 4 12 1 -1.</_>
                <_>
                  6 8 4 1 3.</_></rects>
              <tilted>1</tilted></feature>
            <threshold>-1.4413970347959548e-005</threshold>
            <left_val>0.3489162921905518</left_val>
            <right_val>-0.3983249962329865</right_val></_></_>
        <_>
          <_>
            <feature>
              <rects>
                <_>
                  1 9 9 11 -1.</_>
                <_>
                  4 9 3 11 3.</_></rects>
              <tilted>0</tilted></feature>
            <threshold>0.0254736896604300</threshold>
            <left_val>-0.2010775953531265</left_val>
            <right_val>0.6294615864753723</right_val></_></_></trees>
      <stage_threshold>-1.4682730436325073</stage_threshold>
      <parent>1</parent>
      <next>-1</next></_>
    <_>
      <trees>
        <_>
          <_>
            <feature>
              <rects>
                <_>
                  9 6 7 12 -1.</_>
                <_>
                  9 9 7 6 2.</_></rects>
              <tilted>0</tilted></feature>
            <threshold>0.0762524232268333</threshold>
            <left_val>-0.1982706934213638</left_val>
            <right_val>0.7200996875762940</right_val></_></_>
        <_>
          <_>
            <feature>
              <rects>
                <_>
                  0 5 10 14 -1.</_>
                <_>
                  5 5 5 14 2.</_></rects>
              <tilted>0</tilted></feature>
            <threshold>-0.0948135033249855</threshold>
            <left_val>0.6878092885017395</left_val>
            <right_val>-0.1379593014717102</right_val></_></_>
        <_>
          <_>
            <feature>
              <rects>
                <_>
                  0 10 24 6 -1.</_>
                <_>
                  6 10 12 6 2.</_></rects>
              <tilted>0</tilted></feature>
            <threshold>0.0798020809888840</threshold>
            <left_val>-0.2295213043689728</left_val>
            <right_val>0.5359511971473694</right_val></_></_>
        <_>
          <_>
            <feature>
              <rects>
                <_>
                  18 16 2 3 -1.</_>
                <_>
                  17 17 2 1 3.</_></rects>
              <tilted>1</tilted></feature>
            <threshold>3.8365959189832211e-003</threshold>
            <left_val>0.1572494059801102</left_val>
            <right_val>-0.6965156197547913</right_val></_></_>
        <_>
          <_>
            <feature>
              <rects>
                <_>
                  18 16 2 3 -1.</_>
                <_>
                  17 17 2 1 3.</_></rects>
              <tilted>1</tilted></feature>
            <threshold>-3.7523070350289345e-003</threshold>
            <left_val>-0.5702356100082398</left_val>
            <right_val>0.1944373995065689</right_val></_></_>
        <_>
          <_>
            <feature>
              <rects>
                <_>
                  8 17 7 2 -1.</_>
                <_>
                  8 18 7 1 2.</_></rects>
              <tilted>0</tilted></feature>
            <threshold>-0.0128665799275041</threshold>
            <left_val>0.8125687837600708</left_val>
            <right_val>-0.1889525949954987</right_val></_></_>
        <_>
          <_>
            <feature>
              <rects>
                <_>
                  11 17 2 2 -1.</_>
                <_>
                  12 17 1 2 2.</_></rects>
              <tilted>0</tilted></feature>
            <threshold>8.9702807599678636e-004</threshold>
            <left_val>0.2327830046415329</left_val>
            <right_val>-0.5258064866065979</right_val></_></_>
        <_>
          <_>
            <feature>
              <rects>
                <_>
                  11 17 2 2 -1.</_>
                <_>
                  12 17 1 2 2.</_></rects>
              <tilted>0</tilted></feature>
            <threshold>-9.3903380911797285e-004</threshold>
            <left_val>-0.6622586846351624</left_val>
            <right_val>0.1207903027534485</right_val></_></_>
        <_>
          <_>
            <feature>
              <rects>
                <_>
                  12 4 12 18 -1.</_>
                <_>
                  18 4 6 18 2.</_></rects>
              <tilted>0</tilted></feature>
            <threshold>0.1037691980600357</threshold>
            <left_val>-0.1393807977437973</left_val>
            <right_val>0.6175484061241150</right_val></_></_>
        <_>
          <_>
            <feature>
              <rects>
                <_>
                  14 3 8 12 -1.</_>
                <_>
                  14 3 4 12 2.</_></rects>
              <tilted>1</tilted></feature>
            <threshold>0.0510115511715412</threshold>
            <left_val>0.1695210933685303</left_val>
            <right_val>-0.5617774724960327</right_val></_></_>
        <_>
          <_>
            <feature>
              <rects>
                <_>
                  7 5 6 16 -1.</_>
                <_>
                  7 13 6 8 2.</_></rects>
              <tilted>0</tilted></feature>
            <threshold>0.0305189900100231</threshold>
            <left_val>0.1591980010271072</left_val>
            <right_val>-0.6349030733108521</right_val></_></_>
        <_>
          <_>
            <feature>
              <rects>
                <_>
                  12 12 3 2 -1.</_>
                <_>
                  13 12 1 2 3.</_></rects>
              <tilted>0</tilted></feature>
            <threshold>4.9734311178326607e-003</threshold>
            <left_val>-0.1624182015657425</left_val>
            <right_val>0.6216176748275757</right_val></_></_>
        <_>
          <_>
            <feature>
              <rects>
                <_>
                  3 11 2 2 -1.</_>
                <_>
                  3 12 2 1 2.</_></rects>
              <tilted>0</tilted></feature>
            <threshold>-1.2045330367982388e-003</threshold>
            <left_val>-0.5985841751098633</left_val>
            <right_val>0.1663533002138138</right_val></_></_></trees>
      <stage_threshold>-1.3096870183944702</stage_threshold>
      <parent>2</parent>
      <next>-1</next></_>
    <_>
      <trees>
        <_>
          <_>
            <feature>
              <rects>
                <_>
                  15 9 3 6 -1.</_>
                <_>
                  16 9 1 6 3.</_></rects>
              <tilted>0</tilted></feature>
            <threshold>0.0110520496964455</threshold>
            <left_val>-0.1438567042350769</left_val>
            <right_val>0.9077386856079102</right_val></_></_>
        <_>
          <_>
            <feature>
              <rects>
                <_>
                  14 9 3 6 -1.</_>
                <_>
                  15 11 1 2 9.</_></rects>
              <tilted>0</tilted></feature>
            <threshold>0.0264016501605511</threshold>
            <left_val>-0.1558049023151398</left_val>
            <right_val>0.6939194798469544</right_val></_></_>
        <_>
          <_>
            <feature>
              <rects>
                <_>
                  9 3 3 6 -1.</_>
                <_>
                  10 4 1 6 3.</_></rects>
              <tilted>1</tilted></feature>
            <threshold>-0.0239637903869152</threshold>
            <left_val>0.7799729108810425</left_val>
            <right_val>-0.1166907995939255</right_val></_></_>
        <_>
          <_>
            <feature>
              <rects>
                <_>
                  16 10 1 3 -1.</_>
                <_>
                  15 11 1 1 3.</_></rects>
              <tilted>1</tilted></feature>
            <threshold>6.1963461339473724e-003</threshold>
            <left_val>-0.1186133027076721</left_val>
            <right_val>0.7069553136825562</right_val></_></_>
        <_>
          <_>
            <feature>
              <rects>
                <_>
                  19 13 3 6 -1.</_>
                <_>
                  20 14 1 6 3.</_></rects>
              <tilted>1</tilted></feature>
            <threshold>-0.0167855396866798</threshold>
            <left_val>0.5937271118164063</left_val>
            <right_val>-0.1381691992282867</right_val></_></_>
        <_>
          <_>
            <feature>
              <rects>
                <_>
                  10 4 3 2 -1.</_>
                <_>
                  11 4 1 2 3.</_></rects>
              <tilted>0</tilted></feature>
            <threshold>1.3325690524652600e-003</threshold>
            <left_val>0.1539673954248428</left_val>
            <right_val>-0.6289169192314148</right_val></_></_>
        <_>
          <_>
            <feature>
              <rects>
                <_>
                  17 13 3 4 -1.</_>
                <_>
                  18 14 1 4 3.</_></rects>
              <tilted>1</tilted></feature>
            <threshold>-0.0115369101986289</threshold>
            <left_val>0.5323777198791504</left_val>
            <right_val>-0.1502909064292908</right_val></_></_>
        <_>
          <_>
            <feature>
              <rects>
                <_>
                  10 5 3 1 -1.</_>
                <_>
                  11 5 1 1 3.</_></rects>
              <tilted>0</tilted></feature>
            <threshold>-1.0374929988756776e-003</threshold>
            <left_val>-0.6705458760261536</left_val>
            <right_val>0.1570740044116974</right_val></_></_>
        <_>
          <_>
            <feature>
              <rects>
                <_>
                  6 10 3 4 -1.</_>
                <_>
                  7 10 1 4 3.</_></rects>
              <tilted>0</tilted></feature>
            <threshold>7.0578129962086678e-003</threshold>
            <left_val>-0.1454998999834061</left_val>
            <right_val>0.7244256138801575</right_val></_></_>
        <_>
          <_>
            <feature>
              <rects>
                <_>
                  10 5 4 14 -1.</_>
                <_>
                  10 12 4 7 2.</_></rects>
              <tilted>0</tilted></feature>
            <threshold>-0.0275845006108284</threshold>
            <left_val>-0.6206402182579041</left_val>
            <right_val>0.1397622972726822</right_val></_></_>
        <_>
          <_>
            <feature>
              <rects>
                <_>
                  13 7 8 8 -1.</_>
                <_>
                  13 7 8 4 2.</_></rects>
              <tilted>1</tilted></feature>
            <threshold>-0.0249209702014923</threshold>
            <left_val>-0.6952453255653381</left_val>
            <right_val>0.1068532019853592</right_val></_></_>
        <_>
          <_>
            <feature>
              <rects>
                <_>
                  22 7 1 4 -1.</_>
                <_>
                  22 8 1 2 2.</_></rects>
              <tilted>0</tilted></feature>
            <threshold>-8.6242519319057465e-004</threshold>
            <left_val>-0.5715798735618591</left_val>
            <right_val>0.1530510038137436</right_val></_></_>
        <_>
          <_>
            <feature>
              <rects>
                <_>
                  22 7 1 2 -1.</_>
                <_>
                  22 8 1 1 2.</_></rects>
              <tilted>0</tilted></feature>
            <threshold>6.4362050034105778e-004</threshold>
            <left_val>0.1434818059206009</left_val>
            <right_val>-0.6050912141799927</right_val></_></_>
        <_>
          <_>
            <feature>
              <rects>
                <_>
                  9 3 6 4 -1.</_>
                <_>
                  11 5 2 4 3.</_></rects>
              <tilted>1</tilted></feature>
            <threshold>-0.0440145097672939</threshold>
            <left_val>0.6117063760757446</left_val>
            <right_val>-0.1359467953443527</right_val></_></_>
        <_>
          <_>
            <feature>
              <rects>
                <_>
                  2 21 4 2 -1.</_>
                <_>
                  2 21 2 1 2.</_>
                <_>
                  4 22 2 1 2.</_></rects>
              <tilted>0</tilted></feature>
            <threshold>-1.2835200177505612e-003</threshold>
            <left_val>-0.6722161173820496</left_val>
            <right_val>0.1332056969404221</right_val></_></_>
        <_>
          <_>
            <feature>
              <rects>
                <_>
                  3 7 18 14 -1.</_>
                <_>
                  3 7 9 7 2.</_>
                <_>
                  12 14 9 7 2.</_></rects>
              <tilted>0</tilted></feature>
            <threshold>-0.0780720636248589</threshold>
            <left_val>-0.7015761137008667</left_val>
            <right_val>0.0886010006070137</right_val></_></_></trees>
      <stage_threshold>-0.8551828861236572</stage_threshold>
      <parent>3</parent>
      <next>-1</next></_>
    <_>
      <trees>
        <_>
          <_>
            <feature>
              <rects>
                <_>
                  17 13 3 1 -1.</_>
                <_>
                  18 14 1 1 3.</_></rects>
              <tilted>1</tilted></feature>
            <threshold>-3.3120429143309593e-003</threshold>
            <left_val>0.5385897159576416</left_val>
            <right_val>-0.2276474982500076</right_val></_></_>
        <_>
          <_>
            <feature>
              <rects>
                <_>
                  18 9 3 7 -1.</_>
                <_>
                  19 9 1 7 3.</_></rects>
              <tilted>0</tilted></feature>
            <threshold>-7.0209638215601444e-003</threshold>
            <left_val>0.6405088901519775</left_val>
            <right_val>-0.1711580008268356</right_val></_></_>
        <_>
          <_>
            <feature>
              <rects>
                <_>
                  10 18 4 3 -1.</_>
                <_>
                  10 19 4 1 3.</_></rects>
              <tilted>0</tilted></feature>
            <threshold>-5.3544938564300537e-003</threshold>
            <left_val>0.5739989280700684</left_val>
            <right_val>-0.1696386039257050</right_val></_></_>
        <_>
          <_>
            <feature>
              <rects>
                <_>
                  9 14 7 6 -1.</_>
                <_>
                  9 16 7 2 3.</_></rects>
              <tilted>0</tilted></feature>
            <threshold>-0.0121014500036836</threshold>
            <left_val>0.3883512914180756</left_val>
            <right_val>-0.2253026962280273</right_val></_></_>
        <_>
          <_>
            <feature>
              <rects>
                <_>
                  9 3 3 5 -1.</_>
                <_>
                  10 4 1 5 3.</_></rects>
              <tilted>1</tilted></feature>
            <threshold>-0.0181459207087755</threshold>
            <left_val>0.6131023764610291</left_val>
            <right_val>-0.1434359997510910</right_val></_></_>
        <_>
          <_>
            <feature>
              <rects>
                <_>
                  4 10 3 5 -1.</_>
                <_>
                  5 10 1 5 3.</_></rects>
              <tilted>0</tilted></feature>
            <threshold>8.1684179604053497e-003</threshold>
            <left_val>-0.1047877967357636</left_val>
            <right_val>0.6746097803115845</right_val></_></_>
        <_>
          <_>
            <feature>
              <rects>
                <_>
                  9 9 3 6 -1.</_>
                <_>
                  10 11 1 2 9.</_></rects>
              <tilted>0</tilted></feature>
            <threshold>0.0279795993119478</threshold>
            <left_val>-0.1223383992910385</left_val>
            <right_val>0.6329836249351502</right_val></_></_>
        <_>
          <_>
            <feature>
              <rects>
                <_>
                  7 13 4 3 -1.</_>
                <_>
                  6 14 4 1 3.</_></rects>
              <tilted>1</tilted></feature>
            <threshold>-0.0112176295369864</threshold>
            <left_val>0.5849388837814331</left_val>
            <right_val>-0.1538266986608505</right_val></_></_>
        <_>
          <_>
            <feature>
              <rects>
                <_>
                  15 12 4 2 -1.</_>
                <_>
                  16 12 2 2 2.</_></rects>
              <tilted>0</tilted></feature>
            <threshold>-6.3785328529775143e-003</threshold>
            <left_val>0.7881758213043213</left_val>
            <right_val>-0.0785787031054497</right_val></_></_>
        <_>
          <_>
            <feature>
              <rects>
                <_>
                  17 10 3 5 -1.</_>
                <_>
                  18 10 1 5 3.</_></rects>
              <tilted>0</tilted></feature>
            <threshold>-0.0111889597028494</threshold>
            <left_val>0.6847831010818481</left_val>
            <right_val>-0.0958783924579620</right_val></_></_>
        <_>
          <_>
            <feature>
              <rects>
                <_>
                  17 5 3 2 -1.</_>
                <_>
                  18 6 1 2 3.</_></rects>
              <tilted>1</tilted></feature>
            <threshold>3.3246569801121950e-003</threshold>
            <left_val>0.1341577023267746</left_val>
            <right_val>-0.6328821182250977</right_val></_></_>
        <_>
          <_>
            <feature>
              <rects>
                <_>
                  8 11 3 3 -1.</_>
                <_>
                  9 11 1 3 3.</_></rects>
              <tilted>0</tilted></feature>
            <threshold>4.1262879967689514e-003</threshold>
            <left_val>-0.1266428977251053</left_val>
            <right_val>0.6008399128913879</right_val></_></_>
        <_>
          <_>
            <feature>
              <rects>
                <_>
                  1 1 21 8 -1.</_>
                <_>
                  1 5 21 4 2.</_></rects>
              <tilted>0</tilted></feature>
            <threshold>-0.0900856629014015</threshold>
            <left_val>0.4212884008884430</left_val>
            <right_val>-0.1853394061326981</right_val></_></_>
        <_>
          <_>
            <feature>
              <rects>
                <_>
                  14 4 10 13 -1.</_>
                <_>
                  19 4 5 13 2.</_></rects>
              <tilted>0</tilted></feature>
            <threshold>-0.0656883716583252</threshold>
            <left_val>0.4608899056911469</left_val>
            <right_val>-0.1789821982383728</right_val></_></_>
        <_>
          <_>
            <feature>
              <rects>
                <_>
                  19 13 2 6 -1.</_>
                <_>
                  19 13 2 3 2.</_></rects>
              <tilted>1</tilted></feature>
            <threshold>-0.0150798400864005</threshold>
            <left_val>-0.6063007712364197</left_val>
            <right_val>0.1447613984346390</right_val></_></_>
        <_>
          <_>
            <feature>
              <rects>
                <_>
                  14 11 2 6 -1.</_>
                <_>
                  15 11 1 6 2.</_></rects>
              <tilted>0</tilted></feature>
            <threshold>-0.0112555203959346</threshold>
            <left_val>0.8664882183074951</left_val>
            <right_val>-0.1133088022470474</right_val></_></_>
        <_>
          <_>
            <feature>
              <rects>
                <_>
                  10 5 4 6 -1.</_>
                <_>
                  10 7 4 2 3.</_></rects>
              <tilted>0</tilted></feature>
            <threshold>-0.0108968401327729</threshold>
            <left_val>0.3509041070938110</left_val>
            <right_val>-0.1957643032073975</right_val></_></_></trees>
      <stage_threshold>-1.2343139648437500</stage_threshold>
      <parent>4</parent>
      <next>-1</next></_>
    <_>
      <trees>
        <_>
          <_>
            <feature>
              <rects>
                <_>
                  3 11 2 2 -1.</_>
                <_>
                  3 12 2 1 2.</_></rects>
              <tilted>0</tilted></feature>
            <threshold>8.7777507724240422e-004</threshold>
            <left_val>0.1675184965133667</left_val>
            <right_val>-0.5779893994331360</right_val></_></_>
        <_>
          <_>
            <feature>
              <rects>
                <_>
                  5 11 9 4 -1.</_>
                <_>
                  5 11 9 2 2.</_></rects>
              <tilted>1</tilted></feature>
            <threshold>-0.0486142300069332</threshold>
            <left_val>0.6576266288757324</left_val>
            <right_val>-0.1312025040388107</right_val></_></_>
        <_>
          <_>
            <feature>
              <rects>
                <_>
                  12 17 2 3 -1.</_>
                <_>
                  13 17 1 3 2.</_></rects>
              <tilted>0</tilted></feature>
            <threshold>1.3114670291543007e-003</threshold>
            <left_val>0.1540458947420120</left_val>
            <right_val>-0.5675255060195923</right_val></_></_>
        <_>
          <_>
            <feature>
              <rects>
                <_>
                  17 6 2 2 -1.</_>
                <_>
                  17 6 1 2 2.</_></rects>
              <tilted>1</tilted></feature>
            <threshold>3.2195649109780788e-003</threshold>
            <left_val>0.1240395009517670</left_val>
            <right_val>-0.7119752168655396</right_val></_></_>
        <_>
          <_>
            <feature>
              <rects>
                <_>
                  16 4 3 2 -1.</_>
                <_>
                  17 5 1 2 3.</_></rects>
              <tilted>1</tilted></feature>
            <threshold>-3.5834889858961105e-003</threshold>
            <left_val>-0.6478934288024902</left_val>
            <right_val>0.1387178003787994</right_val></_></_>
        <_>
          <_>
            <feature>
              <rects>
                <_>
                  8 9 3 3 -1.</_>
                <_>
                  9 10 1 1 9.</_></rects>
              <tilted>0</tilted></feature>
            <threshold>0.0106504997238517</threshold>
            <left_val>-0.1472062021493912</left_val>
            <right_val>0.5750520825386047</right_val></_></_>
        <_>
          <_>
            <feature>
              <rects>
                <_>
                  7 5 2 3 -1.</_>
                <_>
                  6 6 2 1 3.</_></rects>
              <tilted>1</tilted></feature>
            <threshold>-5.7660839520394802e-003</threshold>
            <left_val>-0.8077434897422791</left_val>
            <right_val>0.0857623890042305</right_val></_></_>
        <_>
          <_>
            <feature>
              <rects>
                <_>
                  15 10 3 4 -1.</_>
                <_>
                  16 10 1 4 3.</_></rects>
              <tilted>0</tilted></feature>
            <threshold>9.7251627594232559e-003</threshold>
            <left_val>-0.1255895048379898</left_val>
            <right_val>0.6447281837463379</right_val></_></_>
        <_>
          <_>
            <feature>
              <rects>
                <_>
                  20 19 2 4 -1.</_>
                <_>
                  20 19 1 2 2.</_>
                <_>
                  21 21 1 2 2.</_></rects>
              <tilted>0</tilted></feature>
            <threshold>9.7011949401348829e-004</threshold>
            <left_val>0.1213643997907639</left_val>
            <right_val>-0.5513228774070740</right_val></_></_>
        <_>
          <_>
            <feature>
              <rects>
                <_>
                  12 3 8 8 -1.</_>
                <_>
                  12 3 8 4 2.</_></rects>
              <tilted>1</tilted></feature>
            <threshold>0.0422290787100792</threshold>
            <left_val>0.1085240021348000</left_val>
            <right_val>-0.6548091173171997</right_val></_></_>
        <_>
          <_>
            <feature>
              <rects>
                <_>
                  19 17 4 4 -1.</_>
                <_>
                  19 17 2 2 2.</_>
                <_>
                  21 19 2 2 2.</_></rects>
              <tilted>0</tilted></feature>
            <threshold>3.8416848983615637e-003</threshold>
            <left_val>0.1142148002982140</left_val>
            <right_val>-0.6509621143341065</right_val></_></_>
        <_>
          <_>
            <feature>
              <rects>
                <_>
                  14 10 1 3 -1.</_>
                <_>
                  13 11 1 1 3.</_></rects>
              <tilted>1</tilted></feature>
            <threshold>5.6662289425730705e-003</threshold>
            <left_val>-0.1511650979518890</left_val>
            <right_val>0.5224183201789856</right_val></_></_>
        <_>
          <_>
            <feature>
              <rects>
                <_>
                  8 6 1 2 -1.</_>
                <_>
                  8 6 1 1 2.</_></rects>
              <tilted>1</tilted></feature>
            <threshold>-1.3354819966480136e-003</threshold>
            <left_val>-0.5250130295753479</left_val>
            <right_val>0.1395062953233719</right_val></_></_>
        <_>
          <_>
            <feature>
              <rects>
                <_>
                  10 4 4 3 -1.</_>
                <_>
                  10 5 4 1 3.</_></rects>
              <tilted>0</tilted></feature>
            <threshold>-5.6114387698471546e-003</threshold>
            <left_val>0.5155684947967529</left_val>
            <right_val>-0.1356898993253708</right_val></_></_>
        <_>
          <_>
            <feature>
              <rects>
                <_>
                  21 15 2 3 -1.</_>
                <_>
                  20 16 2 1 3.</_></rects>
              <tilted>1</tilted></feature>
            <threshold>-4.6307751908898354e-003</threshold>
            <left_val>-0.6115813255310059</left_val>
            <right_val>0.1323509961366653</right_val></_></_>
        <_>
          <_>
            <feature>
              <rects>
                <_>
                  9 3 6 3 -1.</_>
                <_>
                  9 4 6 1 3.</_></rects>
              <tilted>0</tilted></feature>
            <threshold>-8.0791004002094269e-003</threshold>
            <left_val>0.5508412718772888</left_val>
            <right_val>-0.1540766060352325</right_val></_></_>
        <_>
          <_>
            <feature>
              <rects>
                <_>
                  9 4 6 6 -1.</_>
                <_>
                  9 6 6 2 3.</_></rects>
              <tilted>0</tilted></feature>
            <threshold>-0.0198671706020832</threshold>
            <left_val>0.4390149116516113</left_val>
            <right_val>-0.1766490042209625</right_val></_></_>
        <_>
          <_>
            <feature>
              <rects>
                <_>
                  18 3 4 2 -1.</_>
                <_>
                  19 4 2 2 2.</_></rects>
              <tilted>1</tilted></feature>
            <threshold>-5.9461840428411961e-003</threshold>
            <left_val>-0.7013868093490601</left_val>
            <right_val>0.1024829968810082</right_val></_></_></trees>
      <stage_threshold>-1.1484349966049194</stage_threshold>
      <parent>5</parent>
      <next>-1</next></_>
    <_>
      <trees>
        <_>
          <_>
            <feature>
              <rects>
                <_>
                  18 13 3 4 -1.</_>
                <_>
                  19 14 1 4 3.</_></rects>
              <tilted>1</tilted></feature>
            <threshold>-0.0140210501849651</threshold>
            <left_val>0.5200083851814270</left_val>
            <right_val>-0.1643904000520706</right_val></_></_>
        <_>
          <_>
            <feature>
              <rects>
                <_>
                  14 8 3 9 -1.</_>
                <_>
                  15 11 1 3 9.</_></rects>
              <tilted>0</tilted></feature>
            <threshold>0.0533850491046906</threshold>
            <left_val>-0.1298156976699829</left_val>
            <right_val>0.5694758296012878</right_val></_></_>
        <_>
          <_>
            <feature>
              <rects>
                <_>
                  0 4 24 7 -1.</_>
                <_>
                  6 4 12 7 2.</_></rects>
              <tilted>0</tilted></feature>
            <threshold>-0.1121496036648750</threshold>
            <left_val>0.5481243729591370</left_val>
            <right_val>-0.1420602947473526</right_val></_></_>
        <_>
          <_>
            <feature>
              <rects>
                <_>
                  2 15 20 6 -1.</_>
                <_>
                  7 15 10 6 2.</_></rects>
              <tilted>0</tilted></feature>
            <threshold>0.0644610524177551</threshold>
            <left_val>-0.1589068025350571</left_val>
            <right_val>0.5193321108818054</right_val></_></_>
        <_>
          <_>
            <feature>
              <rects>
                <_>
                  4 10 10 4 -1.</_>
                <_>
                  4 10 10 2 2.</_></rects>
              <tilted>1</tilted></feature>
            <threshold>-0.0338910408318043</threshold>
            <left_val>0.4977368116378784</left_val>
            <right_val>-0.1010067015886307</right_val></_></_>
        <_>
          <_>
            <feature>
              <rects>
                <_>
                  5 8 3 8 -1.</_>
                <_>
                  6 8 1 8 3.</_></rects>
              <tilted>0</tilted></feature>
            <threshold>6.4390078186988831e-003</threshold>
            <left_val>-0.1599687039852142</left_val>
            <right_val>0.4403846859931946</right_val></_></_>
        <_>
          <_>
            <feature>
              <rects>
                <_>
                  22 15 2 8 -1.</_>
                <_>
                  22 15 1 4 2.</_>
                <_>
                  23 19 1 4 2.</_></rects>
              <tilted>0</tilted></feature>
            <threshold>4.0601450018584728e-003</threshold>
            <left_val>0.1089423969388008</left_val>
            <right_val>-0.7475404739379883</right_val></_></_>
        <_>
          <_>
            <feature>
              <rects>
                <_>
                  8 4 9 4 -1.</_>
                <_>
                  8 5 9 2 2.</_></rects>
              <tilted>0</tilted></feature>
            <threshold>-0.0112771997228265</threshold>
            <left_val>0.4659123122692108</left_val>
            <right_val>-0.1499892026185989</right_val></_></_>
        <_>
          <_>
            <feature>
              <rects>
                <_>
                  8 6 10 10 -1.</_>
                <_>
                  13 6 5 10 2.</_></rects>
              <tilted>0</tilted></feature>
            <threshold>0.0351470895111561</threshold>
            <left_val>0.1022756025195122</left_val>
            <right_val>-0.6723201870918274</right_val></_></_>
        <_>
          <_>
            <feature>
              <rects>
                <_>
                  9 6 6 10 -1.</_>
                <_>
                  12 6 3 10 2.</_></rects>
              <tilted>0</tilted></feature>
            <threshold>-9.2533845454454422e-003</threshold>
            <left_val>-0.4118970036506653</left_val>
            <right_val>0.1699932068586350</right_val></_></_>
        <_>
          <_>
            <feature>
              <rects>
                <_>
                  11 11 3 4 -1.</_>
                <_>
                  12 11 1 4 3.</_></rects>
              <tilted>0</tilted></feature>
            <threshold>-8.6417496204376221e-003</threshold>
            <left_val>0.7408528923988342</left_val>
            <right_val>-0.1309103965759277</right_val></_></_>
        <_>
          <_>
            <feature>
              <rects>
                <_>
                  3 12 3 4 -1.</_>
                <_>
                  3 13 3 2 2.</_></rects>
              <tilted>0</tilted></feature>
            <threshold>-4.2515499517321587e-003</threshold>
            <left_val>-0.6813964247703552</left_val>
            <right_val>0.1086558029055595</right_val></_></_>
        <_>
          <_>
            <feature>
              <rects>
                <_>
                  11 8 3 9 -1.</_>
                <_>
                  12 11 1 3 9.</_></rects>
              <tilted>0</tilted></feature>
            <threshold>0.0460004694759846</threshold>
            <left_val>-0.1546064019203186</left_val>
            <right_val>0.4648016095161438</right_val></_></_>
        <_>
          <_>
            <feature>
              <rects>
                <_>
                  12 3 3 3 -1.</_>
                <_>
                  12 4 3 1 3.</_></rects>
              <tilted>0</tilted></feature>
            <threshold>-3.7297538947314024e-003</threshold>
            <left_val>0.4643217921257019</left_val>
            <right_val>-0.1337482929229736</right_val></_></_>
        <_>
          <_>
            <feature>
              <rects>
                <_>
                  16 2 6 3 -1.</_>
                <_>
                  15 3 6 1 3.</_></rects>
              <tilted>1</tilted></feature>
            <threshold>0.0105193797498941</threshold>
            <left_val>-0.1480457931756973</left_val>
            <right_val>0.5170723199844360</right_val></_></_>
        <_>
          <_>
            <feature>
              <rects>
                <_>
                  0 10 3 2 -1.</_>
                <_>
                  0 11 3 1 2.</_></rects>
              <tilted>0</tilted></feature>
            <threshold>1.6077300533652306e-003</threshold>
            <left_val>0.1245651021599770</left_val>
            <right_val>-0.5693421959877014</right_val></_></_>
        <_>
          <_>
            <feature>
              <rects>
                <_>
                  7 5 2 2 -1.</_>
                <_>
                  7 5 2 1 2.</_></rects>
              <tilted>1</tilted></feature>
            <threshold>-3.0862260609865189e-003</threshold>
            <left_val>-0.5690066814422607</left_val>
            <right_val>0.1090039014816284</right_val></_></_>
        <_>
          <_>
            <feature>
              <rects>
                <_>
                  10 10 1 4 -1.</_>
                <_>
                  9 11 1 2 2.</_></rects>
              <tilted>1</tilted></feature>
            <threshold>4.0974169969558716e-003</threshold>
            <left_val>-0.1596395969390869</left_val>
            <right_val>0.4229682981967926</right_val></_></_>
        <_>
          <_>
            <feature>
              <rects>
                <_>
                  9 15 2 3 -1.</_>
                <_>
                  9 15 1 3 2.</_></rects>
              <tilted>1</tilted></feature>
            <threshold>-3.4286519512534142e-003</threshold>
            <left_val>-0.6049373745918274</left_val>
            <right_val>0.1042037978768349</right_val></_></_></trees>
      <stage_threshold>-0.9951816201210022</stage_threshold>
      <parent>6</parent>
      <next>-1</next></_>
    <_>
      <trees>
        <_>
          <_>
            <feature>
              <rects>
                <_>
                  16 3 6 3 -1.</_>
                <_>
                  15 4 6 1 3.</_></rects>
              <tilted>1</tilted></feature>
            <threshold>-0.0165257006883621</threshold>
            <left_val>0.6035423874855042</left_val>
            <right_val>-0.1517259925603867</right_val></_></_>
        <_>
          <_>
            <feature>
              <rects>
                <_>
                  14 10 3 5 -1.</_>
                <_>
                  15 10 1 5 3.</_></rects>
              <tilted>0</tilted></feature>
            <threshold>0.0128929996863008</threshold>
            <left_val>-0.0922654271125793</left_val>
            <right_val>0.7602825164794922</right_val></_></_>
        <_>
          <_>
            <feature>
              <rects>
                <_>
                  17 12 3 4 -1.</_>
                <_>
                  18 12 1 4 3.</_></rects>
              <tilted>0</tilted></feature>
            <threshold>-6.0841860249638557e-003</threshold>
            <left_val>0.5778061747550964</left_val>
            <right_val>-0.1332572996616364</right_val></_></_>
        <_>
          <_>
            <feature>
              <rects>
                <_>
                  8 3 7 4 -1.</_>
                <_>
                  8 4 7 2 2.</_></rects>
              <tilted>0</tilted></feature>
            <threshold>9.1161318123340607e-003</threshold>
            <left_val>-0.1498793959617615</left_val>
            <right_val>0.5366833806037903</right_val></_></_>
        <_>
          <_>
            <feature>
              <rects>
                <_>
                  6 5 4 2 -1.</_>
                <_>
                  6 5 2 1 2.</_>
                <_>
                  8 6 2 1 2.</_></rects>
              <tilted>0</tilted></feature>
            <threshold>1.6104100504890084e-003</threshold>
            <left_val>-0.1590159982442856</left_val>
            <right_val>0.4458653032779694</right_val></_></_>
        <_>
          <_>
            <feature>
              <rects>
                <_>
                  5 4 2 2 -1.</_>
                <_>
                  5 4 2 1 2.</_></rects>
              <tilted>1</tilted></feature>
            <threshold>3.2934930641204119e-003</threshold>
            <left_val>0.1389383971691132</left_val>
            <right_val>-0.6346340775489807</right_val></_></_>
        <_>
          <_>
            <feature>
              <rects>
                <_>
                  8 16 2 2 -1.</_>
                <_>
                  8 16 1 2 2.</_></rects>
              <tilted>1</tilted></feature>
            <threshold>3.8371379487216473e-003</threshold>
            <left_val>0.1151361986994743</left_val>
            <right_val>-0.7183445096015930</right_val></_></_>
        <_>
          <_>
            <feature>
              <rects>
                <_>
                  16 5 3 1 -1.</_>
                <_>
                  17 6 1 1 3.</_></rects>
              <tilted>1</tilted></feature>
            <threshold>-2.4981331080198288e-003</threshold>
            <left_val>-0.6486359238624573</left_val>
            <right_val>0.1260650008916855</right_val></_></_>
        <_>
          <_>
            <feature>
              <rects>
                <_>
                  6 14 5 3 -1.</_>
                <_>
                  5 15 5 1 3.</_></rects>
              <tilted>1</tilted></feature>
            <threshold>5.7538780383765697e-003</threshold>
            <left_val>-0.2094289958477020</left_val>
            <right_val>0.3784497082233429</right_val></_></_>
        <_>
          <_>
            <feature>
              <rects>
                <_>
                  10 6 3 16 -1.</_>
                <_>
                  10 14 3 8 2.</_></rects>
              <tilted>0</tilted></feature>
            <threshold>0.0137042999267578</threshold>
            <left_val>0.1194240003824234</left_val>
            <right_val>-0.6840133070945740</right_val></_></_>
        <_>
          <_>
            <feature>
              <rects>
                <_>
                  17 10 3 5 -1.</_>
                <_>
                  18 10 1 5 3.</_></rects>
              <tilted>0</tilted></feature>
            <threshold>4.6768370084464550e-003</threshold>
            <left_val>-0.1878233999013901</left_val>
            <right_val>0.4244551062583923</right_val></_></_>
        <_>
          <_>
            <feature>
              <rects>
                <_>
                  18 20 2 4 -1.</_>
                <_>
                  19 20 1 4 2.</_></rects>
              <tilted>0</tilted></feature>
            <threshold>1.7030290327966213e-003</threshold>
            <left_val>0.1434004008769989</left_val>
            <right_val>-0.5603219866752625</right_val></_></_>
        <_>
          <_>
            <feature>
              <rects>
                <_>
                  9 4 6 4 -1.</_>
                <_>
                  12 4 3 4 2.</_></rects>
              <tilted>0</tilted></feature>
            <threshold>-9.8562613129615784e-003</threshold>
            <left_val>-0.6275869011878967</left_val>
            <right_val>0.0985251218080521</right_val></_></_>
        <_>
          <_>
            <feature>
              <rects>
                <_>
                  13 12 3 3 -1.</_>
                <_>
                  14 13 1 1 9.</_></rects>
              <tilted>0</tilted></feature>
            <threshold>7.8914836049079895e-003</threshold>
            <left_val>-0.1775308996438980</left_val>
            <right_val>0.4288657903671265</right_val></_></_>
        <_>
          <_>
            <feature>
              <rects>
                <_>
                  0 10 2 2 -1.</_>
                <_>
                  0 11 2 1 2.</_></rects>
              <tilted>0</tilted></feature>
            <threshold>-1.4568240148946643e-003</threshold>
            <left_val>-0.5931382775306702</left_val>
            <right_val>0.1259588003158569</right_val></_></_>
        <_>
          <_>
            <feature>
              <rects>
                <_>
                  18 10 4 3 -1.</_>
                <_>
                  19 10 2 3 2.</_></rects>
              <tilted>0</tilted></feature>
            <threshold>2.0920271053910255e-003</threshold>
            <left_val>-0.1864093989133835</left_val>
            <right_val>0.3781993985176086</right_val></_></_>
        <_>
          <_>
            <feature>
              <rects>
                <_>
                  20 12 1 2 -1.</_>
                <_>
                  20 13 1 1 2.</_></rects>
              <tilted>0</tilted></feature>
            <threshold>-8.7008072296157479e-004</threshold>
            <left_val>-0.5956776738166809</left_val>
            <right_val>0.1026111021637917</right_val></_></_></trees>
      <stage_threshold>-0.8748638033866882</stage_threshold>
      <parent>7</parent>
      <next>-1</next></_>
    <_>
      <trees>
        <_>
          <_>
            <feature>
              <rects>
                <_>
                  5 12 2 8 -1.</_>
                <_>
                  5 12 1 4 2.</_>
                <_>
                  6 16 1 4 2.</_></rects>
              <tilted>0</tilted></feature>
            <threshold>-5.8428701013326645e-003</threshold>
            <left_val>0.5508937239646912</left_val>
            <right_val>-0.1517829000949860</right_val></_></_>
        <_>
          <_>
            <feature>
              <rects>
                <_>
                  16 9 4 7 -1.</_>
                <_>
                  17 9 2 7 2.</_></rects>
              <tilted>0</tilted></feature>
            <threshold>-0.0126620195806026</threshold>
            <left_val>0.5507466197013855</left_val>
            <right_val>-0.1152144968509674</right_val></_></_>
        <_>
          <_>
            <feature>
              <rects>
                <_>
                  16 9 4 6 -1.</_>
                <_>
                  17 9 2 6 2.</_></rects>
              <tilted>0</tilted></feature>
            <threshold>7.1667260490357876e-003</threshold>
            <left_val>-0.1480444967746735</left_val>
            <right_val>0.4738982915878296</right_val></_></_>
        <_>
          <_>
            <feature>
              <rects>
                <_>
                  8 3 8 9 -1.</_>
                <_>
                  8 6 8 3 3.</_></rects>
              <tilted>0</tilted></feature>
            <threshold>-0.0641756579279900</threshold>
            <left_val>0.3999327123165131</left_val>
            <right_val>-0.2037245929241180</right_val></_></_>
        <_>
          <_>
            <feature>
              <rects>
                <_>
                  19 11 2 2 -1.</_>
                <_>
                  19 12 2 1 2.</_></rects>
              <tilted>0</tilted></feature>
            <threshold>1.3543770182877779e-003</threshold>
            <left_val>0.1629443019628525</left_val>
            <right_val>-0.5413166284561157</right_val></_></_>
        <_>
          <_>
            <feature>
              <rects>
                <_>
                  4 10 3 5 -1.</_>
                <_>
                  5 10 1 5 3.</_></rects>
              <tilted>0</tilted></feature>
            <threshold>7.6959738507866859e-003</threshold>
            <left_val>-0.0926587432622910</left_val>
            <right_val>0.5402138233184815</right_val></_></_>
        <_>
          <_>
            <feature>
              <rects>
                <_>
                  6 10 8 6 -1.</_>
                <_>
                  6 10 8 3 2.</_></rects>
              <tilted>1</tilted></feature>
            <threshold>-0.0603719912469387</threshold>
            <left_val>0.4576047062873840</left_val>
            <right_val>-0.1570259034633637</right_val></_></_>
        <_>
          <_>
            <feature>
              <rects>
                <_>
                  10 0 5 9 -1.</_>
                <_>
                  10 3 5 3 3.</_></rects>
              <tilted>0</tilted></feature>
            <threshold>-0.0243776794523001</threshold>
            <left_val>0.4273043870925903</left_val>
            <right_val>-0.1518280953168869</right_val></_></_>
        <_>
          <_>
            <feature>
              <rects>
                <_>
                  3 10 3 5 -1.</_>
                <_>
                  4 10 1 5 3.</_></rects>
              <tilted>0</tilted></feature>
            <threshold>9.7049772739410400e-003</threshold>
            <left_val>-0.0681346878409386</left_val>
            <right_val>0.7361282110214233</right_val></_></_>
        <_>
          <_>
            <feature>
              <rects>
                <_>
                  18 11 2 2 -1.</_>
                <_>
                  18 12 2 1 2.</_></rects>
              <tilted>0</tilted></feature>
            <threshold>-1.1457389919087291e-003</threshold>
            <left_val>-0.5229145884513855</left_val>
            <right_val>0.1240890026092529</right_val></_></_>
        <_>
          <_>
            <feature>
              <rects>
                <_>
                  7 13 11 6 -1.</_>
                <_>
                  7 15 11 2 3.</_></rects>
              <tilted>0</tilted></feature>
            <threshold>-0.0412523895502090</threshold>
            <left_val>0.4504534006118774</left_val>
            <right_val>-0.1355872005224228</right_val></_></_>
        <_>
          <_>
            <feature>
              <rects>
                <_>
                  8 12 7 9 -1.</_>
                <_>
                  8 15 7 3 3.</_></rects>
              <tilted>0</tilted></feature>
            <threshold>0.0385984294116497</threshold>
            <left_val>-0.1342215985059738</left_val>
            <right_val>0.5250877737998962</right_val></_></_>
        <_>
          <_>
            <feature>
              <rects>
                <_>
                  16 17 2 2 -1.</_>
                <_>
                  16 17 2 1 2.</_></rects>
              <tilted>1</tilted></feature>
            <threshold>3.7019059527665377e-003</threshold>
            <left_val>0.1181685030460358</left_val>
            <right_val>-0.7006644010543823</right_val></_></_>
        <_>
          <_>
            <feature>
              <rects>
                <_>
                  3 19 2 5 -1.</_>
                <_>
                  4 19 1 5 2.</_></rects>
              <tilted>0</tilted></feature>
            <threshold>2.5993899907916784e-003</threshold>
            <left_val>0.0608726404607296</left_val>
            <right_val>-0.6125267744064331</right_val></_></_>
        <_>
          <_>
            <feature>
              <rects>
                <_>
                  3 21 2 2 -1.</_>
                <_>
                  4 21 1 2 2.</_></rects>
              <tilted>0</tilted></feature>
            <threshold>-6.6042202524840832e-004</threshold>
            <left_val>-0.4955984950065613</left_val>
            <right_val>0.1109500005841255</right_val></_></_>
        <_>
          <_>
            <feature>
              <rects>
                <_>
                  19 14 3 5 -1.</_>
                <_>
                  20 15 1 5 3.</_></rects>
              <tilted>1</tilted></feature>
            <threshold>9.9335797131061554e-003</threshold>
            <left_val>-0.1184324994683266</left_val>
            <right_val>0.4702762961387634</right_val></_></_>
        <_>
          <_>
            <feature>
              <rects>
                <_>
                  11 18 5 3 -1.</_>
                <_>
                  11 19 5 1 3.</_></rects>
              <tilted>0</tilted></feature>
            <threshold>-5.5097527801990509e-003</threshold>
            <left_val>0.4183363020420075</left_val>
            <right_val>-0.1350492984056473</right_val></_></_>
        <_>
          <_>
            <feature>
              <rects>
                <_>
                  8 18 7 3 -1.</_>
                <_>
                  8 19 7 1 3.</_></rects>
              <tilted>0</tilted></feature>
            <threshold>4.5302850194275379e-003</threshold>
            <left_val>-0.1447858959436417</left_val>
            <right_val>0.4582503139972687</right_val></_></_>
        <_>
          <_>
            <feature>
              <rects>
                <_>
                  22 10 2 4 -1.</_>
                <_>
                  22 10 1 2 2.</_>
                <_>
                  23 12 1 2 2.</_></rects>
              <tilted>0</tilted></feature>
            <threshold>1.5004939632490277e-003</threshold>
            <left_val>0.0864362567663193</left_val>
            <right_val>-0.6435657739639282</right_val></_></_>
        <_>
          <_>
            <feature>
              <rects>
                <_>
                  1 7 4 8 -1.</_>
                <_>
                  1 9 4 4 2.</_></rects>
              <tilted>0</tilted></feature>
            <threshold>0.0143270697444677</threshold>
            <left_val>0.0757645070552826</left_val>
            <right_val>-0.7058575749397278</right_val></_></_>
        <_>
          <_>
            <feature>
              <rects>
                <_>
                  9 5 9 6 -1.</_>
                <_>
                  12 7 3 2 9.</_></rects>
              <tilted>0</tilted></feature>
            <threshold>-0.0316474698483944</threshold>
            <left_val>0.2769697904586792</left_val>
            <right_val>-0.2137752026319504</right_val></_></_>
        <_>
          <_>
            <feature>
              <rects>
                <_>
                  16 1 8 4 -1.</_>
                <_>
                  15 2 8 2 2.</_></rects>
              <tilted>1</tilted></feature>
            <threshold>-0.0114384600892663</threshold>
            <left_val>0.3900344073772430</left_val>
            <right_val>-0.1465418040752411</right_val></_></_>
        <_>
          <_>
            <feature>
              <rects>
                <_>
                  17 3 7 3 -1.</_>
                <_>
                  16 4 7 1 3.</_></rects>
              <tilted>1</tilted></feature>
            <threshold>0.0113748302683234</threshold>
            <left_val>-0.1285721063613892</left_val>
            <right_val>0.4392549991607666</right_val></_></_>
        <_>
          <_>
            <feature>
              <rects>
                <_>
                  19 12 1 2 -1.</_>
                <_>
                  19 13 1 1 2.</_></rects>
              <tilted>0</tilted></feature>
            <threshold>7.6796428766101599e-004</threshold>
            <left_val>0.1031169965863228</left_val>
            <right_val>-0.6024680733680725</right_val></_></_>
        <_>
          <_>
            <feature>
              <rects>
                <_>
                  18 17 2 2 -1.</_>
                <_>
                  18 17 2 1 2.</_></rects>
              <tilted>1</tilted></feature>
            <threshold>-3.2584739383310080e-003</threshold>
            <left_val>-0.6355075836181641</left_val>
            <right_val>0.0739466771483421</right_val></_></_>
        <_>
          <_>
            <feature>
              <rects>
                <_>
                  17 14 2 4 -1.</_>
                <_>
                  17 14 1 2 2.</_>
                <_>
                  18 16 1 2 2.</_></rects>
              <tilted>0</tilted></feature>
            <threshold>-1.5220410423353314e-003</threshold>
            <left_val>0.4462409019470215</left_val>
            <right_val>-0.1440791040658951</right_val></_></_></trees>
      <stage_threshold>-1.0677169561386108</stage_threshold>
      <parent>8</parent>
      <next>-1</next></_>
    <_>
      <trees>
        <_>
          <_>
            <feature>
              <rects>
                <_>
                  6 13 5 3 -1.</_>
                <_>
                  5 14 5 1 3.</_></rects>
              <tilted>1</tilted></feature>
            <threshold>-0.0127553399652243</threshold>
            <left_val>0.6210888028144836</left_val>
            <right_val>-0.1671697050333023</right_val></_></_>
        <_>
          <_>
            <feature>
              <rects>
                <_>
                  10 4 5 3 -1.</_>
                <_>
                  10 5 5 1 3.</_></rects>
              <tilted>0</tilted></feature>
            <threshold>-6.9126100279390812e-003</threshold>
            <left_val>0.5433608293533325</left_val>
            <right_val>-0.1438024044036865</right_val></_></_>
        <_>
          <_>
            <feature>
              <rects>
                <_>
                  9 4 6 3 -1.</_>
                <_>
                  9 5 6 1 3.</_></rects>
              <tilted>0</tilted></feature>
            <threshold>7.5838849879801273e-003</threshold>
            <left_val>-0.1532793045043945</left_val>
            <right_val>0.5833613276481628</right_val></_></_>
        <_>
          <_>
            <feature>
              <rects>
                <_>
                  6 13 7 3 -1.</_>
                <_>
                  5 14 7 1 3.</_></rects>
              <tilted>1</tilted></feature>
            <threshold>8.2034021615982056e-003</threshold>
            <left_val>-0.1787339001893997</left_val>
            <right_val>0.4722886085510254</right_val></_></_>
        <_>
          <_>
            <feature>
              <rects>
                <_>
                  19 13 3 6 -1.</_>
                <_>
                  20 14 1 6 3.</_></rects>
              <tilted>1</tilted></feature>
            <threshold>-0.0210495796054602</threshold>
            <left_val>0.7249652743339539</left_val>
            <right_val>-0.0396709591150284</right_val></_></_>
        <_>
          <_>
            <feature>
              <rects>
                <_>
                  19 11 3 7 -1.</_>
                <_>
                  20 12 1 7 3.</_></rects>
              <tilted>1</tilted></feature>
            <threshold>-8.4361610934138298e-003</threshold>
            <left_val>0.3337002992630005</left_val>
            <right_val>-0.2315499931573868</right_val></_></_>
        <_>
          <_>
            <feature>
              <rects>
                <_>
                  3 10 3 9 -1.</_>
                <_>
                  3 13 3 3 3.</_></rects>
              <tilted>0</tilted></feature>
            <threshold>0.0197360999882221</threshold>
            <left_val>0.0927571803331375</left_val>
            <right_val>-0.7588250041007996</right_val></_></_>
        <_>
          <_>
            <feature>
              <rects>
                <_>
                  18 13 3 5 -1.</_>
                <_>
                  19 14 1 5 3.</_></rects>
              <tilted>1</tilted></feature>
            <threshold>0.0167368799448013</threshold>
            <left_val>-0.0837546214461327</left_val>
            <right_val>0.7393429279327393</right_val></_></_>
        <_>
          <_>
            <feature>
              <rects>
                <_>
                  7 14 4 2 -1.</_>
                <_>
                  7 14 2 2 2.</_></rects>
              <tilted>1</tilted></feature>
            <threshold>-9.6577201038599014e-003</threshold>
            <left_val>-0.7186498045921326</left_val>
            <right_val>0.0954267233610153</right_val></_></_>
        <_>
          <_>
            <feature>
              <rects>
                <_>
                  8 8 3 9 -1.</_>
                <_>
                  9 11 1 3 9.</_></rects>
              <tilted>0</tilted></feature>
            <threshold>0.0709433630108833</threshold>
            <left_val>-0.0918794274330139</left_val>
            <right_val>0.6942632794380188</right_val></_></_>
        <_>
          <_>
            <feature>
              <rects>
                <_>
                  11 7 2 16 -1.</_>
                <_>
                  11 15 2 8 2.</_></rects>
              <tilted>0</tilted></feature>
            <threshold>-0.0437866896390915</threshold>
            <left_val>-0.7337620854377747</left_val>
            <right_val>0.0905763730406761</right_val></_></_>
        <_>
          <_>
            <feature>
              <rects>
                <_>
                  8 1 16 6 -1.</_>
                <_>
                  12 5 8 6 2.</_></rects>
              <tilted>1</tilted></feature>
            <threshold>0.2146482020616531</threshold>
            <left_val>-0.1137472018599510</left_val>
            <right_val>0.6955053210258484</right_val></_></_>
        <_>
          <_>
            <feature>
              <rects>
                <_>
                  8 2 4 7 -1.</_>
                <_>
                  8 2 2 7 2.</_></rects>
              <tilted>1</tilted></feature>
            <threshold>0.0450624004006386</threshold>
            <left_val>-0.1120219975709915</left_val>
            <right_val>0.4842179119586945</right_val></_></_>
        <_>
          <_>
            <feature>
              <rects>
                <_>
                  9 9 2 2 -1.</_>
                <_>
                  9 9 1 1 2.</_>
                <_>
                  10 10 1 1 2.</_></rects>
              <tilted>0</tilted></feature>
            <threshold>1.1499179527163506e-003</threshold>
            <left_val>-0.1247970014810562</left_val>
            <right_val>0.5016216039657593</right_val></_></_>
        <_>
          <_>
            <feature>
              <rects>
                <_>
                  8 15 3 6 -1.</_>
                <_>
                  9 16 1 6 3.</_></rects>
              <tilted>1</tilted></feature>
            <threshold>-0.0106163304299116</threshold>
            <left_val>-0.6803351044654846</left_val>
            <right_val>0.1053007990121841</right_val></_></_>
        <_>
          <_>
            <feature>
              <rects>
                <_>
                  11 12 3 3 -1.</_>
                <_>
                  12 13 1 1 9.</_></rects>
              <tilted>0</tilted></feature>
            <threshold>-9.2685613781213760e-003</threshold>
            <left_val>0.5223619937896729</left_val>
            <right_val>-0.1438045948743820</right_val></_></_>
        <_>
          <_>
            <feature>
              <rects>
                <_>
                  11 13 3 1 -1.</_>
                <_>
                  12 13 1 1 3.</_></rects>
              <tilted>0</tilted></feature>
            <threshold>1.9639790989458561e-003</threshold>
            <left_val>-0.1175315007567406</left_val>
            <right_val>0.4847585856914520</right_val></_></_>
        <_>
          <_>
            <feature>
              <rects>
                <_>
                  10 3 3 6 -1.</_>
                <_>
                  11 4 1 6 3.</_></rects>
              <tilted>1</tilted></feature>
            <threshold>0.0118491901084781</threshold>
            <left_val>-0.1037546992301941</left_val>
            <right_val>0.5632789731025696</right_val></_></_>
        <_>
          <_>
            <feature>
              <rects>
                <_>
                  7 9 12 6 -1.</_>
                <_>
                  13 9 6 6 2.</_></rects>
              <tilted>0</tilted></feature>
            <threshold>0.0315858088433743</threshold>
            <left_val>0.0921377465128899</left_val>
            <right_val>-0.7203624844551086</right_val></_></_>
        <_>
          <_>
            <feature>
              <rects>
                <_>
                  12 3 12 12 -1.</_>
                <_>
                  12 3 6 6 2.</_>
                <_>
                  18 9 6 6 2.</_></rects>
              <tilted>0</tilted></feature>
            <threshold>-0.0596859604120255</threshold>
            <left_val>0.3167018890380859</left_val>
            <right_val>-0.1925603002309799</right_val></_></_>
        <_>
          <_>
            <feature>
              <rects>
                <_>
                  11 6 5 6 -1.</_>
                <_>
                  11 9 5 3 2.</_></rects>
              <tilted>0</tilted></feature>
            <threshold>-0.0125732896849513</threshold>
            <left_val>0.6145818829536438</left_val>
            <right_val>-0.0877669006586075</right_val></_></_>
        <_>
          <_>
            <feature>
              <rects>
                <_>
                  15 4 6 3 -1.</_>
                <_>
                  14 5 6 1 3.</_></rects>
              <tilted>1</tilted></feature>
            <threshold>-7.8953867778182030e-003</threshold>
            <left_val>0.3420306146144867</left_val>
            <right_val>-0.1829663962125778</right_val></_></_></trees>
      <stage_threshold>-1.1238030195236206</stage_threshold>
      <parent>9</parent>
      <next>-1</next></_>
    <_>
      <trees>
        <_>
          <_>
            <feature>
              <rects>
                <_>
                  3 8 3 8 -1.</_>
                <_>
                  4 8 1 8 3.</_></rects>
              <tilted>0</tilted></feature>
            <threshold>-0.0157275106757879</threshold>
            <left_val>0.7080367207527161</left_val>
            <right_val>-0.1042141020298004</right_val></_></_>
        <_>
          <_>
            <feature>
              <rects>
                <_>
                  4 10 3 5 -1.</_>
                <_>
                  5 10 1 5 3.</_></rects>
              <tilted>0</tilted></feature>
            <threshold>-0.0121330702677369</threshold>
            <left_val>0.6942592859268189</left_val>
            <right_val>-0.0919153466820717</right_val></_></_>
        <_>
          <_>
            <feature>
              <rects>
                <_>
                  12 6 2 2 -1.</_>
                <_>
                  13 6 1 2 2.</_></rects>
              <tilted>0</tilted></feature>
            <threshold>9.4797572819516063e-004</threshold>
            <left_val>0.1251471042633057</left_val>
            <right_val>-0.6183295249938965</right_val></_></_>
        <_>
          <_>
            <feature>
              <rects>
                <_>
                  1 13 21 9 -1.</_>
                <_>
                  8 16 7 3 9.</_></rects>
              <tilted>0</tilted></feature>
            <threshold>-0.3127720952033997</threshold>
            <left_val>0.6158031821250916</left_val>
            <right_val>-0.1182728037238121</right_val></_></_>
        <_>
          <_>
            <feature>
              <rects>
                <_>
                  12 5 4 3 -1.</_>
                <_>
                  13 5 2 3 2.</_></rects>
              <tilted>0</tilted></feature>
            <threshold>-2.4607479572296143e-003</threshold>
            <left_val>-0.4638895094394684</left_val>
            <right_val>0.1847784072160721</right_val></_></_>
        <_>
          <_>
            <feature>
              <rects>
                <_>
                  3 9 4 6 -1.</_>
                <_>
                  4 9 2 6 2.</_></rects>
              <tilted>0</tilted></feature>
            <threshold>3.0262260697782040e-003</threshold>
            <left_val>-0.2277619987726212</left_val>
            <right_val>0.3130266964435577</right_val></_></_>
        <_>
          <_>
            <feature>
              <rects>
                <_>
                  9 3 2 4 -1.</_>
                <_>
                  8 4 2 2 2.</_></rects>
              <tilted>1</tilted></feature>
            <threshold>5.8562499471008778e-003</threshold>
            <left_val>0.1327836960554123</left_val>
            <right_val>-0.6316108107566834</right_val></_></_>
        <_>
          <_>
            <feature>
              <rects>
                <_>
                  9 9 7 8 -1.</_>
                <_>
                  9 11 7 4 2.</_></rects>
              <tilted>0</tilted></feature>
            <threshold>-0.0196211002767086</threshold>
            <left_val>0.6146767139434815</left_val>
            <right_val>-0.1190653964877129</right_val></_></_>
        <_>
          <_>
            <feature>
              <rects>
                <_>
                  9 4 2 5 -1.</_>
                <_>
                  9 4 1 5 2.</_></rects>
              <tilted>1</tilted></feature>
            <threshold>0.0150374304503202</threshold>
            <left_val>-0.0778882578015327</left_val>
            <right_val>0.6321420073509216</right_val></_></_>
        <_>
          <_>
            <feature>
              <rects>
                <_>
                  7 6 1 2 -1.</_>
                <_>
                  7 6 1 1 2.</_></rects>
              <tilted>1</tilted></feature>
            <threshold>-1.7432300373911858e-003</threshold>
            <left_val>-0.5790513753890991</left_val>
            <right_val>0.1077544018626213</right_val></_></_>
        <_>
          <_>
            <feature>
              <rects>
                <_>
                  21 14 3 3 -1.</_>
                <_>
                  20 15 3 1 3.</_></rects>
              <tilted>1</tilted></feature>
            <threshold>6.2375050038099289e-003</threshold>
            <left_val>0.0728617906570435</left_val>
            <right_val>-0.7045137286186218</right_val></_></_>
        <_>
          <_>
            <feature>
              <rects>
                <_>
                  4 11 16 6 -1.</_>
                <_>
                  12 11 8 6 2.</_></rects>
              <tilted>0</tilted></feature>
            <threshold>-0.0243387892842293</threshold>
            <left_val>-0.4479452967643738</left_val>
            <right_val>0.1245855987071991</right_val></_></_>
        <_>
          <_>
            <feature>
              <rects>
                <_>
                  8 0 6 14 -1.</_>
                <_>
                  8 0 3 7 2.</_>
                <_>
                  11 7 3 7 2.</_></rects>
              <tilted>0</tilted></feature>
            <threshold>0.0316968187689781</threshold>
            <left_val>0.1101343035697937</left_val>
            <right_val>-0.5880557894706726</right_val></_></_>
        <_>
          <_>
            <feature>
              <rects>
                <_>
                  0 13 2 2 -1.</_>
                <_>
                  0 13 1 1 2.</_>
                <_>
                  1 14 1 1 2.</_></rects>
              <tilted>0</tilted></feature>
            <threshold>6.6914618946611881e-004</threshold>
            <left_val>0.0717449933290482</left_val>
            <right_val>-0.6205645203590393</right_val></_></_>
        <_>
          <_>
            <feature>
              <rects>
                <_>
                  3 18 13 3 -1.</_>
                <_>
                  3 19 13 1 3.</_></rects>
              <tilted>0</tilted></feature>
            <threshold>-9.0701766312122345e-003</threshold>
            <left_val>0.4202494919300079</left_val>
            <right_val>-0.1465637981891632</right_val></_></_>
        <_>
          <_>
            <feature>
              <rects>
                <_>
                  19 14 3 4 -1.</_>
                <_>
                  18 15 3 2 2.</_></rects>
              <tilted>1</tilted></feature>
            <threshold>5.4470300674438477e-003</threshold>
            <left_val>0.1213601008057594</left_val>
            <right_val>-0.5003222823143005</right_val></_></_>
        <_>
          <_>
            <feature>
              <rects>
                <_>
                  11 3 4 4 -1.</_>
                <_>
                  11 4 4 2 2.</_></rects>
              <tilted>0</tilted></feature>
            <threshold>3.2736898865550756e-003</threshold>
            <left_val>-0.1695335060358048</left_val>
            <right_val>0.3563680052757263</right_val></_></_>
        <_>
          <_>
            <feature>
              <rects>
                <_>
                  15 4 3 2 -1.</_>
                <_>
                  16 5 1 2 3.</_></rects>
              <tilted>1</tilted></feature>
            <threshold>-3.7516038864850998e-003</threshold>
            <left_val>-0.6086887717247009</left_val>
            <right_val>0.1147771999239922</right_val></_></_>
        <_>
          <_>
            <feature>
              <rects>
                <_>
                  17 8 3 12 -1.</_>
                <_>
                  18 8 1 12 3.</_></rects>
              <tilted>0</tilted></feature>
            <threshold>-7.4003632180392742e-003</threshold>
            <left_val>0.4396040141582489</left_val>
            <right_val>-0.1600112020969391</right_val></_></_>
        <_>
          <_>
            <feature>
              <rects>
                <_>
                  7 16 12 3 -1.</_>
                <_>
                  11 17 4 1 9.</_></rects>
              <tilted>0</tilted></feature>
            <threshold>-9.1756843030452728e-003</threshold>
            <left_val>0.2922765016555786</left_val>
            <right_val>-0.1834269016981125</right_val></_></_>
        <_>
          <_>
            <feature>
              <rects>
                <_>
                  9 19 8 3 -1.</_>
                <_>
                  9 20 8 1 3.</_></rects>
              <tilted>0</tilted></feature>
            <threshold>-5.2666710689663887e-003</threshold>
            <left_val>0.4306648969650269</left_val>
            <right_val>-0.1306423991918564</right_val></_></_>
        <_>
          <_>
            <feature>
              <rects>
                <_>
                  16 10 4 1 -1.</_>
                <_>
                  17 10 2 1 2.</_></rects>
              <tilted>0</tilted></feature>
            <threshold>4.9496098654344678e-004</threshold>
            <left_val>-0.1702664941549301</left_val>
            <right_val>0.3473379015922546</right_val></_></_>
        <_>
          <_>
            <feature>
              <rects>
                <_>
                  7 17 3 1 -1.</_>
                <_>
                  8 18 1 1 3.</_></rects>
              <tilted>1</tilted></feature>
            <threshold>2.1445530001074076e-003</threshold>
            <left_val>0.1078689023852348</left_val>
            <right_val>-0.5705404877662659</right_val></_></_>
        <_>
          <_>
            <feature>
              <rects>
                <_>
                  12 4 4 20 -1.</_>
                <_>
                  12 4 2 10 2.</_>
                <_>
                  14 14 2 10 2.</_></rects>
              <tilted>0</tilted></feature>
            <threshold>0.0244165007025003</threshold>
            <left_val>0.0833341032266617</left_val>
            <right_val>-0.6210789084434509</right_val></_></_>
        <_>
          <_>
            <feature>
              <rects>
                <_>
                  11 4 6 11 -1.</_>
                <_>
                  14 4 3 11 2.</_></rects>
              <tilted>0</tilted></feature>
            <threshold>0.0188074000179768</threshold>
            <left_val>0.0797865763306618</left_val>
            <right_val>-0.6364735960960388</right_val></_></_>
        <_>
          <_>
            <feature>
              <rects>
                <_>
                  8 4 4 4 -1.</_>
                <_>
                  9 5 2 4 2.</_></rects>
              <tilted>1</tilted></feature>
            <threshold>-0.0161009393632412</threshold>
            <left_val>0.4161059856414795</left_val>
            <right_val>-0.1395317018032074</right_val></_></_></trees>
      <stage_threshold>-1.1701730489730835</stage_threshold>
      <parent>10</parent>
      <next>-1</next></_>
    <_>
      <trees>
        <_>
          <_>
            <feature>
              <rects>
                <_>
                  0 5 24 17 -1.</_>
                <_>
                  6 5 12 17 2.</_></rects>
              <tilted>0</tilted></feature>
            <threshold>-0.2787469029426575</threshold>
            <left_val>0.8251215219497681</left_val>
            <right_val>-0.1042947992682457</right_val></_></_>
        <_>
          <_>
            <feature>
              <rects>
                <_>
                  13 10 3 4 -1.</_>
                <_>
                  14 10 1 4 3.</_></rects>
              <tilted>0</tilted></feature>
            <threshold>0.0119684701785445</threshold>
            <left_val>-0.1244992986321449</left_val>
            <right_val>0.7278903722763062</right_val></_></_>
        <_>
          <_>
            <feature>
              <rects>
                <_>
                  16 13 3 2 -1.</_>
                <_>
                  17 13 1 2 3.</_></rects>
              <tilted>0</tilted></feature>
            <threshold>-4.6164458617568016e-003</threshold>
            <left_val>0.5833693742752075</left_val>
            <right_val>-0.0616937801241875</right_val></_></_>
        <_>
          <_>
            <feature>
              <rects>
                <_>
                  16 10 3 5 -1.</_>
                <_>
                  17 10 1 5 3.</_></rects>
              <tilted>0</tilted></feature>
            <threshold>9.8636392503976822e-003</threshold>
            <left_val>-0.1196777001023293</left_val>
            <right_val>0.6150807738304138</right_val></_></_>
        <_>
          <_>
            <feature>
              <rects>
                <_>
                  17 2 4 1 -1.</_>
                <_>
                  19 2 2 1 2.</_></rects>
              <tilted>0</tilted></feature>
            <threshold>1.5065680490806699e-003</threshold>
            <left_val>0.1136171966791153</left_val>
            <right_val>-0.5330607891082764</right_val></_></_>
        <_>
          <_>
            <feature>
              <rects>
                <_>
                  10 15 3 4 -1.</_>
                <_>
                  11 16 1 4 3.</_></rects>
              <tilted>1</tilted></feature>
            <threshold>-8.3645209670066833e-003</threshold>
            <left_val>-0.6615846157073975</left_val>
            <right_val>0.1219371035695076</right_val></_></_>
        <_>
          <_>
            <feature>
              <rects>
                <_>
                  10 18 4 3 -1.</_>
                <_>
                  10 19 4 1 3.</_></rects>
              <tilted>0</tilted></feature>
            <threshold>-6.6766738891601563e-003</threshold>
            <left_val>0.4582183957099915</left_val>
            <right_val>-0.1545141041278839</right_val></_></_>
        <_>
          <_>
            <feature>
              <rects>
                <_>
                  5 18 16 2 -1.</_>
                <_>
                  5 19 16 1 2.</_></rects>
              <tilted>0</tilted></feature>
            <threshold>2.9263079632073641e-003</threshold>
            <left_val>-0.2053586989641190</left_val>
            <right_val>0.3758594989776611</right_val></_></_>
        <_>
          <_>
            <feature>
              <rects>
                <_>
                  8 14 6 4 -1.</_>
                <_>
                  8 14 6 2 2.</_></rects>
              <tilted>1</tilted></feature>
            <threshold>0.0327988304197788</threshold>
            <left_val>-0.0994146764278412</left_val>
            <right_val>0.6337596178054810</right_val></_></_>
        <_>
          <_>
            <feature>
              <rects>
                <_>
                  11 4 2 3 -1.</_>
                <_>
                  12 4 1 3 2.</_></rects>
              <tilted>0</tilted></feature>
            <threshold>-1.5159359900280833e-003</threshold>
            <left_val>-0.6509429812431335</left_val>
            <right_val>0.0950569510459900</right_val></_></_>
        <_>
          <_>
            <feature>
              <rects>
                <_>
                  11 4 8 2 -1.</_>
                <_>
                  11 4 4 1 2.</_>
                <_>
                  15 5 4 1 2.</_></rects>
              <tilted>0</tilted></feature>
            <threshold>7.1870228275656700e-003</threshold>
            <left_val>-0.1109341010451317</left_val>
            <right_val>0.5439311861991882</right_val></_></_>
        <_>
          <_>
            <feature>
              <rects>
                <_>
                  10 3 5 3 -1.</_>
                <_>
                  10 4 5 1 3.</_></rects>
              <tilted>0</tilted></feature>
            <threshold>-4.4408729299902916e-003</threshold>
            <left_val>0.4421984851360321</left_val>
            <right_val>-0.1649688035249710</right_val></_></_>
        <_>
          <_>
            <feature>
              <rects>
                <_>
                  11 6 2 1 -1.</_>
                <_>
                  12 6 1 1 2.</_></rects>
              <tilted>0</tilted></feature>
            <threshold>3.7944360519759357e-004</threshold>
            <left_val>0.1180649027228355</left_val>
            <right_val>-0.4886429905891419</right_val></_></_>
        <_>
          <_>
            <feature>
              <rects>
                <_>
                  16 3 6 12 -1.</_>
                <_>
                  18 5 2 12 3.</_></rects>
              <tilted>1</tilted></feature>
            <threshold>0.0515953786671162</threshold>
            <left_val>0.1018887981772423</left_val>
            <right_val>-0.5411037206649780</right_val></_></_>
        <_>
          <_>
            <feature>
              <rects>
                <_>
                  20 19 2 2 -1.</_>
                <_>
                  20 19 1 1 2.</_>
                <_>
                  21 20 1 1 2.</_></rects>
              <tilted>0</tilted></feature>
            <threshold>6.7783461418002844e-004</threshold>
            <left_val>0.0728528425097466</left_val>
            <right_val>-0.6584051251411438</right_val></_></_>
        <_>
          <_>
            <feature>
              <rects>
                <_>
                  17 11 3 4 -1.</_>
                <_>
                  18 11 1 4 3.</_></rects>
              <tilted>0</tilted></feature>
            <threshold>5.4171630181372166e-003</threshold>
            <left_val>-0.1327574998140335</left_val>
            <right_val>0.4626866877079010</right_val></_></_>
        <_>
          <_>
            <feature>
              <rects>
                <_>
                  9 3 6 3 -1.</_>
                <_>
                  11 5 2 3 3.</_></rects>
              <tilted>1</tilted></feature>
            <threshold>-0.0328328981995583</threshold>
            <left_val>0.4353156089782715</left_val>
            <right_val>-0.1265961974859238</right_val></_></_>
        <_>
          <_>
            <feature>
              <rects>
                <_>
                  1 0 5 2 -1.</_>
                <_>
                  1 1 5 1 2.</_></rects>
              <tilted>0</tilted></feature>
            <threshold>3.2588699832558632e-003</threshold>
            <left_val>0.1089548021554947</left_val>
            <right_val>-0.5795155167579651</right_val></_></_>
        <_>
          <_>
            <feature>
              <rects>
                <_>
                  4 0 6 2 -1.</_>
                <_>
                  4 0 3 1 2.</_>
                <_>
                  7 1 3 1 2.</_></rects>
              <tilted>0</tilted></feature>
            <threshold>1.6150349983945489e-003</threshold>
            <left_val>0.1088574007153511</left_val>
            <right_val>-0.4768373072147369</right_val></_></_>
        <_>
          <_>
            <feature>
              <rects>
                <_>
                  18 11 4 4 -1.</_>
                <_>
                  19 11 2 4 2.</_></rects>
              <tilted>0</tilted></feature>
            <threshold>2.7471550274640322e-003</threshold>
            <left_val>-0.1752071976661682</left_val>
            <right_val>0.3294458091259003</right_val></_></_>
        <_>
          <_>
            <feature>
              <rects>
                <_>
                  3 9 2 9 -1.</_>
                <_>
                  3 12 2 3 3.</_></rects>
              <tilted>0</tilted></feature>
            <threshold>0.0188568308949471</threshold>
            <left_val>0.0747555270791054</left_val>
            <right_val>-0.8718681931495667</right_val></_></_></trees>
      <stage_threshold>-0.8585032224655151</stage_threshold>
      <parent>11</parent>
      <next>-1</next></_>
    <_>
      <trees>
        <_>
          <_>
            <feature>
              <rects>
                <_>
                  10 11 3 1 -1.</_>
                <_>
                  11 11 1 1 3.</_></rects>
              <tilted>0</tilted></feature>
            <threshold>-2.5465670041739941e-003</threshold>
            <left_val>0.6662095785140991</left_val>
            <right_val>-0.1176064983010292</right_val></_></_>
        <_>
          <_>
            <feature>
              <rects>
                <_>
                  10 11 3 1 -1.</_>
                <_>
                  11 11 1 1 3.</_></rects>
              <tilted>0</tilted></feature>
            <threshold>2.1579801104962826e-003</threshold>
